<?xml version="1.0" encoding="UTF-8" standalone="yes"?>
<PMML xmlns="http://www.dmg.org/PMML-4_4" xmlns:data="http://jpmml.org/jpmml-model/InlineTable" version="4.4">
	<Header>
		<Application name="SkLearn2PMML package" version="0.95.0"/>
		<Timestamp>2023-07-18T13:26:46Z</Timestamp>
	</Header>
	<MiningBuildTask>
		<Extension name="repr">PMMLPipeline(steps=[('model', DecisionTreeClassifier(max_depth=11))])</Extension>
	</MiningBuildTask>
	<DataDictionary>
		<DataField name="score" optype="categorical" dataType="integer">
			<Value value="1"/>
			<Value value="2"/>
			<Value value="3"/>
			<Value value="4"/>
			<Value value="5"/>
			<Value value="6"/>
			<Value value="7"/>
			<Value value="8"/>
			<Value value="9"/>
			<Value value="10"/>
		</DataField>
		<DataField name="total_occurrence" optype="continuous" dataType="float"/>
		<DataField name="neighbour_occurrence" optype="continuous" dataType="float"/>
		<DataField name="transportation_time" optype="continuous" dataType="float"/>
	</DataDictionary>
	<TreeModel functionName="classification" algorithmName="sklearn.tree._classes.DecisionTreeClassifier" missingValueStrategy="nullPrediction">
		<MiningSchema>
			<MiningField name="score" usageType="target"/>
			<MiningField name="total_occurrence"/>
			<MiningField name="neighbour_occurrence"/>
			<MiningField name="transportation_time"/>
		</MiningSchema>
		<Output>
			<OutputField name="probability(1)" optype="continuous" dataType="double" feature="probability" value="1"/>
			<OutputField name="probability(2)" optype="continuous" dataType="double" feature="probability" value="2"/>
			<OutputField name="probability(3)" optype="continuous" dataType="double" feature="probability" value="3"/>
			<OutputField name="probability(4)" optype="continuous" dataType="double" feature="probability" value="4"/>
			<OutputField name="probability(5)" optype="continuous" dataType="double" feature="probability" value="5"/>
			<OutputField name="probability(6)" optype="continuous" dataType="double" feature="probability" value="6"/>
			<OutputField name="probability(7)" optype="continuous" dataType="double" feature="probability" value="7"/>
			<OutputField name="probability(8)" optype="continuous" dataType="double" feature="probability" value="8"/>
			<OutputField name="probability(9)" optype="continuous" dataType="double" feature="probability" value="9"/>
			<OutputField name="probability(10)" optype="continuous" dataType="double" feature="probability" value="10"/>
		</Output>
		<LocalTransformations>
			<DerivedField name="double(total_occurrence)" optype="continuous" dataType="double">
				<FieldRef field="total_occurrence"/>
			</DerivedField>
			<DerivedField name="double(neighbour_occurrence)" optype="continuous" dataType="double">
				<FieldRef field="neighbour_occurrence"/>
			</DerivedField>
			<DerivedField name="double(transportation_time)" optype="continuous" dataType="double">
				<FieldRef field="transportation_time"/>
			</DerivedField>
		</LocalTransformations>
		<Node>
			<True/>
			<Node>
				<SimplePredicate field="double(total_occurrence)" operator="lessOrEqual" value="0.1190476231276989"/>
				<Node>
					<SimplePredicate field="double(neighbour_occurrence)" operator="lessOrEqual" value="0.25"/>
					<Node>
						<SimplePredicate field="double(transportation_time)" operator="lessOrEqual" value="18.5"/>
						<Node>
							<SimplePredicate field="double(total_occurrence)" operator="lessOrEqual" value="0.07142857275903225"/>
							<Node score="2" recordCount="4">
								<SimplePredicate field="double(transportation_time)" operator="lessOrEqual" value="6.5"/>
								<ScoreDistribution value="1" recordCount="0"/>
								<ScoreDistribution value="2" recordCount="4"/>
								<ScoreDistribution value="3" recordCount="0"/>
								<ScoreDistribution value="4" recordCount="0"/>
								<ScoreDistribution value="5" recordCount="0"/>
								<ScoreDistribution value="6" recordCount="0"/>
								<ScoreDistribution value="7" recordCount="0"/>
								<ScoreDistribution value="8" recordCount="0"/>
								<ScoreDistribution value="9" recordCount="0"/>
								<ScoreDistribution value="10" recordCount="0"/>
							</Node>
							<Node score="1" recordCount="56">
								<True/>
								<ScoreDistribution value="1" recordCount="56"/>
								<ScoreDistribution value="2" recordCount="0"/>
								<ScoreDistribution value="3" recordCount="0"/>
								<ScoreDistribution value="4" recordCount="0"/>
								<ScoreDistribution value="5" recordCount="0"/>
								<ScoreDistribution value="6" recordCount="0"/>
								<ScoreDistribution value="7" recordCount="0"/>
								<ScoreDistribution value="8" recordCount="0"/>
								<ScoreDistribution value="9" recordCount="0"/>
								<ScoreDistribution value="10" recordCount="0"/>
							</Node>
						</Node>
						<Node score="2" recordCount="19">
							<True/>
							<ScoreDistribution value="1" recordCount="0"/>
							<ScoreDistribution value="2" recordCount="19"/>
							<ScoreDistribution value="3" recordCount="0"/>
							<ScoreDistribution value="4" recordCount="0"/>
							<ScoreDistribution value="5" recordCount="0"/>
							<ScoreDistribution value="6" recordCount="0"/>
							<ScoreDistribution value="7" recordCount="0"/>
							<ScoreDistribution value="8" recordCount="0"/>
							<ScoreDistribution value="9" recordCount="0"/>
							<ScoreDistribution value="10" recordCount="0"/>
						</Node>
					</Node>
					<Node>
						<SimplePredicate field="double(transportation_time)" operator="lessOrEqual" value="19.5"/>
						<Node score="1" recordCount="8">
							<SimplePredicate field="double(total_occurrence)" operator="lessOrEqual" value="0.07142857275903225"/>
							<ScoreDistribution value="1" recordCount="8"/>
							<ScoreDistribution value="2" recordCount="0"/>
							<ScoreDistribution value="3" recordCount="0"/>
							<ScoreDistribution value="4" recordCount="0"/>
							<ScoreDistribution value="5" recordCount="0"/>
							<ScoreDistribution value="6" recordCount="0"/>
							<ScoreDistribution value="7" recordCount="0"/>
							<ScoreDistribution value="8" recordCount="0"/>
							<ScoreDistribution value="9" recordCount="0"/>
							<ScoreDistribution value="10" recordCount="0"/>
						</Node>
						<Node score="2" recordCount="1">
							<True/>
							<ScoreDistribution value="1" recordCount="0"/>
							<ScoreDistribution value="2" recordCount="1"/>
							<ScoreDistribution value="3" recordCount="0"/>
							<ScoreDistribution value="4" recordCount="0"/>
							<ScoreDistribution value="5" recordCount="0"/>
							<ScoreDistribution value="6" recordCount="0"/>
							<ScoreDistribution value="7" recordCount="0"/>
							<ScoreDistribution value="8" recordCount="0"/>
							<ScoreDistribution value="9" recordCount="0"/>
							<ScoreDistribution value="10" recordCount="0"/>
						</Node>
					</Node>
					<Node score="1" recordCount="333">
						<True/>
						<ScoreDistribution value="1" recordCount="333"/>
						<ScoreDistribution value="2" recordCount="0"/>
						<ScoreDistribution value="3" recordCount="0"/>
						<ScoreDistribution value="4" recordCount="0"/>
						<ScoreDistribution value="5" recordCount="0"/>
						<ScoreDistribution value="6" recordCount="0"/>
						<ScoreDistribution value="7" recordCount="0"/>
						<ScoreDistribution value="8" recordCount="0"/>
						<ScoreDistribution value="9" recordCount="0"/>
						<ScoreDistribution value="10" recordCount="0"/>
					</Node>
				</Node>
				<Node score="3" recordCount="9">
					<SimplePredicate field="double(neighbour_occurrence)" operator="lessOrEqual" value="0.75"/>
					<ScoreDistribution value="1" recordCount="0"/>
					<ScoreDistribution value="2" recordCount="0"/>
					<ScoreDistribution value="3" recordCount="9"/>
					<ScoreDistribution value="4" recordCount="0"/>
					<ScoreDistribution value="5" recordCount="0"/>
					<ScoreDistribution value="6" recordCount="0"/>
					<ScoreDistribution value="7" recordCount="0"/>
					<ScoreDistribution value="8" recordCount="0"/>
					<ScoreDistribution value="9" recordCount="0"/>
					<ScoreDistribution value="10" recordCount="0"/>
				</Node>
				<Node score="6" recordCount="1">
					<SimplePredicate field="double(transportation_time)" operator="lessOrEqual" value="4.0"/>
					<ScoreDistribution value="1" recordCount="0"/>
					<ScoreDistribution value="2" recordCount="0"/>
					<ScoreDistribution value="3" recordCount="0"/>
					<ScoreDistribution value="4" recordCount="0"/>
					<ScoreDistribution value="5" recordCount="0"/>
					<ScoreDistribution value="6" recordCount="1"/>
					<ScoreDistribution value="7" recordCount="0"/>
					<ScoreDistribution value="8" recordCount="0"/>
					<ScoreDistribution value="9" recordCount="0"/>
					<ScoreDistribution value="10" recordCount="0"/>
				</Node>
				<Node score="5" recordCount="11">
					<SimplePredicate field="double(transportation_time)" operator="lessOrEqual" value="119.5"/>
					<ScoreDistribution value="1" recordCount="0"/>
					<ScoreDistribution value="2" recordCount="0"/>
					<ScoreDistribution value="3" recordCount="0"/>
					<ScoreDistribution value="4" recordCount="0"/>
					<ScoreDistribution value="5" recordCount="11"/>
					<ScoreDistribution value="6" recordCount="0"/>
					<ScoreDistribution value="7" recordCount="0"/>
					<ScoreDistribution value="8" recordCount="0"/>
					<ScoreDistribution value="9" recordCount="0"/>
					<ScoreDistribution value="10" recordCount="0"/>
				</Node>
				<Node score="4" recordCount="1">
					<True/>
					<ScoreDistribution value="1" recordCount="0"/>
					<ScoreDistribution value="2" recordCount="0"/>
					<ScoreDistribution value="3" recordCount="0"/>
					<ScoreDistribution value="4" recordCount="1"/>
					<ScoreDistribution value="5" recordCount="0"/>
					<ScoreDistribution value="6" recordCount="0"/>
					<ScoreDistribution value="7" recordCount="0"/>
					<ScoreDistribution value="8" recordCount="0"/>
					<ScoreDistribution value="9" recordCount="0"/>
					<ScoreDistribution value="10" recordCount="0"/>
				</Node>
			</Node>
			<Node>
				<SimplePredicate field="double(total_occurrence)" operator="lessOrEqual" value="0.2380952462553978"/>
				<Node>
					<SimplePredicate field="double(neighbour_occurrence)" operator="lessOrEqual" value="0.125"/>
					<Node score="3" recordCount="1">
						<SimplePredicate field="double(transportation_time)" operator="lessOrEqual" value="5.0"/>
						<ScoreDistribution value="1" recordCount="0"/>
						<ScoreDistribution value="2" recordCount="0"/>
						<ScoreDistribution value="3" recordCount="1"/>
						<ScoreDistribution value="4" recordCount="0"/>
						<ScoreDistribution value="5" recordCount="0"/>
						<ScoreDistribution value="6" recordCount="0"/>
						<ScoreDistribution value="7" recordCount="0"/>
						<ScoreDistribution value="8" recordCount="0"/>
						<ScoreDistribution value="9" recordCount="0"/>
						<ScoreDistribution value="10" recordCount="0"/>
					</Node>
					<Node score="2" recordCount="171">
						<True/>
						<ScoreDistribution value="1" recordCount="0"/>
						<ScoreDistribution value="2" recordCount="171"/>
						<ScoreDistribution value="3" recordCount="0"/>
						<ScoreDistribution value="4" recordCount="0"/>
						<ScoreDistribution value="5" recordCount="0"/>
						<ScoreDistribution value="6" recordCount="0"/>
						<ScoreDistribution value="7" recordCount="0"/>
						<ScoreDistribution value="8" recordCount="0"/>
						<ScoreDistribution value="9" recordCount="0"/>
						<ScoreDistribution value="10" recordCount="0"/>
					</Node>
				</Node>
				<Node score="3" recordCount="14">
					<SimplePredicate field="double(neighbour_occurrence)" operator="lessOrEqual" value="0.5000000149011612"/>
					<ScoreDistribution value="1" recordCount="0"/>
					<ScoreDistribution value="2" recordCount="0"/>
					<ScoreDistribution value="3" recordCount="14"/>
					<ScoreDistribution value="4" recordCount="0"/>
					<ScoreDistribution value="5" recordCount="0"/>
					<ScoreDistribution value="6" recordCount="0"/>
					<ScoreDistribution value="7" recordCount="0"/>
					<ScoreDistribution value="8" recordCount="0"/>
					<ScoreDistribution value="9" recordCount="0"/>
					<ScoreDistribution value="10" recordCount="0"/>
				</Node>
				<Node score="5" recordCount="1">
					<SimplePredicate field="double(transportation_time)" operator="lessOrEqual" value="7.0"/>
					<ScoreDistribution value="1" recordCount="0"/>
					<ScoreDistribution value="2" recordCount="0"/>
					<ScoreDistribution value="3" recordCount="0"/>
					<ScoreDistribution value="4" recordCount="0"/>
					<ScoreDistribution value="5" recordCount="1"/>
					<ScoreDistribution value="6" recordCount="0"/>
					<ScoreDistribution value="7" recordCount="0"/>
					<ScoreDistribution value="8" recordCount="0"/>
					<ScoreDistribution value="9" recordCount="0"/>
					<ScoreDistribution value="10" recordCount="0"/>
				</Node>
				<Node score="4" recordCount="2">
					<True/>
					<ScoreDistribution value="1" recordCount="0"/>
					<ScoreDistribution value="2" recordCount="0"/>
					<ScoreDistribution value="3" recordCount="0"/>
					<ScoreDistribution value="4" recordCount="2"/>
					<ScoreDistribution value="5" recordCount="0"/>
					<ScoreDistribution value="6" recordCount="0"/>
					<ScoreDistribution value="7" recordCount="0"/>
					<ScoreDistribution value="8" recordCount="0"/>
					<ScoreDistribution value="9" recordCount="0"/>
					<ScoreDistribution value="10" recordCount="0"/>
				</Node>
			</Node>
			<Node>
				<SimplePredicate field="double(total_occurrence)" operator="lessOrEqual" value="0.761904776096344"/>
				<Node>
					<SimplePredicate field="double(total_occurrence)" operator="lessOrEqual" value="0.4047619104385376"/>
					<Node>
						<SimplePredicate field="double(transportation_time)" operator="lessOrEqual" value="17.5"/>
						<Node>
							<SimplePredicate field="double(total_occurrence)" operator="lessOrEqual" value="0.3333333432674408"/>
							<Node>
								<SimplePredicate field="double(neighbour_occurrence)" operator="lessOrEqual" value="0.2500000074505806"/>
								<Node>
									<SimplePredicate field="double(transportation_time)" operator="lessOrEqual" value="5.5"/>
									<Node score="4" recordCount="1">
										<SimplePredicate field="double(transportation_time)" operator="lessOrEqual" value="4.5"/>
										<ScoreDistribution value="1" recordCount="0"/>
										<ScoreDistribution value="2" recordCount="0"/>
										<ScoreDistribution value="3" recordCount="0"/>
										<ScoreDistribution value="4" recordCount="1"/>
										<ScoreDistribution value="5" recordCount="0"/>
										<ScoreDistribution value="6" recordCount="0"/>
										<ScoreDistribution value="7" recordCount="0"/>
										<ScoreDistribution value="8" recordCount="0"/>
										<ScoreDistribution value="9" recordCount="0"/>
										<ScoreDistribution value="10" recordCount="0"/>
									</Node>
									<Node score="3" recordCount="1">
										<SimplePredicate field="double(neighbour_occurrence)" operator="lessOrEqual" value="0.0833333358168602"/>
										<ScoreDistribution value="1" recordCount="0"/>
										<ScoreDistribution value="2" recordCount="0"/>
										<ScoreDistribution value="3" recordCount="1"/>
										<ScoreDistribution value="4" recordCount="0"/>
										<ScoreDistribution value="5" recordCount="0"/>
										<ScoreDistribution value="6" recordCount="0"/>
										<ScoreDistribution value="7" recordCount="0"/>
										<ScoreDistribution value="8" recordCount="0"/>
										<ScoreDistribution value="9" recordCount="0"/>
										<ScoreDistribution value="10" recordCount="0"/>
									</Node>
									<Node score="4" recordCount="1">
										<True/>
										<ScoreDistribution value="1" recordCount="0"/>
										<ScoreDistribution value="2" recordCount="0"/>
										<ScoreDistribution value="3" recordCount="0"/>
										<ScoreDistribution value="4" recordCount="1"/>
										<ScoreDistribution value="5" recordCount="0"/>
										<ScoreDistribution value="6" recordCount="0"/>
										<ScoreDistribution value="7" recordCount="0"/>
										<ScoreDistribution value="8" recordCount="0"/>
										<ScoreDistribution value="9" recordCount="0"/>
										<ScoreDistribution value="10" recordCount="0"/>
									</Node>
								</Node>
								<Node>
									<SimplePredicate field="double(transportation_time)" operator="lessOrEqual" value="8.5"/>
									<Node score="3" recordCount="4">
										<SimplePredicate field="double(neighbour_occurrence)" operator="lessOrEqual" value="0.0833333358168602"/>
										<ScoreDistribution value="1" recordCount="0"/>
										<ScoreDistribution value="2" recordCount="0"/>
										<ScoreDistribution value="3" recordCount="4"/>
										<ScoreDistribution value="4" recordCount="0"/>
										<ScoreDistribution value="5" recordCount="0"/>
										<ScoreDistribution value="6" recordCount="0"/>
										<ScoreDistribution value="7" recordCount="0"/>
										<ScoreDistribution value="8" recordCount="0"/>
										<ScoreDistribution value="9" recordCount="0"/>
										<ScoreDistribution value="10" recordCount="0"/>
									</Node>
									<Node score="4" recordCount="1">
										<True/>
										<ScoreDistribution value="1" recordCount="0"/>
										<ScoreDistribution value="2" recordCount="0"/>
										<ScoreDistribution value="3" recordCount="0"/>
										<ScoreDistribution value="4" recordCount="1"/>
										<ScoreDistribution value="5" recordCount="0"/>
										<ScoreDistribution value="6" recordCount="0"/>
										<ScoreDistribution value="7" recordCount="0"/>
										<ScoreDistribution value="8" recordCount="0"/>
										<ScoreDistribution value="9" recordCount="0"/>
										<ScoreDistribution value="10" recordCount="0"/>
									</Node>
								</Node>
								<Node score="3" recordCount="27">
									<True/>
									<ScoreDistribution value="1" recordCount="0"/>
									<ScoreDistribution value="2" recordCount="0"/>
									<ScoreDistribution value="3" recordCount="27"/>
									<ScoreDistribution value="4" recordCount="0"/>
									<ScoreDistribution value="5" recordCount="0"/>
									<ScoreDistribution value="6" recordCount="0"/>
									<ScoreDistribution value="7" recordCount="0"/>
									<ScoreDistribution value="8" recordCount="0"/>
									<ScoreDistribution value="9" recordCount="0"/>
									<ScoreDistribution value="10" recordCount="0"/>
								</Node>
							</Node>
							<Node score="4" recordCount="1">
								<SimplePredicate field="double(neighbour_occurrence)" operator="lessOrEqual" value="0.4166666716337204"/>
								<ScoreDistribution value="1" recordCount="0"/>
								<ScoreDistribution value="2" recordCount="0"/>
								<ScoreDistribution value="3" recordCount="0"/>
								<ScoreDistribution value="4" recordCount="1"/>
								<ScoreDistribution value="5" recordCount="0"/>
								<ScoreDistribution value="6" recordCount="0"/>
								<ScoreDistribution value="7" recordCount="0"/>
								<ScoreDistribution value="8" recordCount="0"/>
								<ScoreDistribution value="9" recordCount="0"/>
								<ScoreDistribution value="10" recordCount="0"/>
							</Node>
							<Node score="5" recordCount="2">
								<True/>
								<ScoreDistribution value="1" recordCount="0"/>
								<ScoreDistribution value="2" recordCount="0"/>
								<ScoreDistribution value="3" recordCount="0"/>
								<ScoreDistribution value="4" recordCount="0"/>
								<ScoreDistribution value="5" recordCount="2"/>
								<ScoreDistribution value="6" recordCount="0"/>
								<ScoreDistribution value="7" recordCount="0"/>
								<ScoreDistribution value="8" recordCount="0"/>
								<ScoreDistribution value="9" recordCount="0"/>
								<ScoreDistribution value="10" recordCount="0"/>
							</Node>
						</Node>
						<Node score="4" recordCount="25">
							<SimplePredicate field="double(neighbour_occurrence)" operator="lessOrEqual" value="0.25"/>
							<ScoreDistribution value="1" recordCount="0"/>
							<ScoreDistribution value="2" recordCount="0"/>
							<ScoreDistribution value="3" recordCount="0"/>
							<ScoreDistribution value="4" recordCount="25"/>
							<ScoreDistribution value="5" recordCount="0"/>
							<ScoreDistribution value="6" recordCount="0"/>
							<ScoreDistribution value="7" recordCount="0"/>
							<ScoreDistribution value="8" recordCount="0"/>
							<ScoreDistribution value="9" recordCount="0"/>
							<ScoreDistribution value="10" recordCount="0"/>
						</Node>
						<Node score="8" recordCount="1">
							<SimplePredicate field="double(transportation_time)" operator="lessOrEqual" value="3.0"/>
							<ScoreDistribution value="1" recordCount="0"/>
							<ScoreDistribution value="2" recordCount="0"/>
							<ScoreDistribution value="3" recordCount="0"/>
							<ScoreDistribution value="4" recordCount="0"/>
							<ScoreDistribution value="5" recordCount="0"/>
							<ScoreDistribution value="6" recordCount="0"/>
							<ScoreDistribution value="7" recordCount="0"/>
							<ScoreDistribution value="8" recordCount="1"/>
							<ScoreDistribution value="9" recordCount="0"/>
							<ScoreDistribution value="10" recordCount="0"/>
						</Node>
						<Node score="6" recordCount="1">
							<SimplePredicate field="double(transportation_time)" operator="lessOrEqual" value="8.0"/>
							<ScoreDistribution value="1" recordCount="0"/>
							<ScoreDistribution value="2" recordCount="0"/>
							<ScoreDistribution value="3" recordCount="0"/>
							<ScoreDistribution value="4" recordCount="0"/>
							<ScoreDistribution value="5" recordCount="0"/>
							<ScoreDistribution value="6" recordCount="1"/>
							<ScoreDistribution value="7" recordCount="0"/>
							<ScoreDistribution value="8" recordCount="0"/>
							<ScoreDistribution value="9" recordCount="0"/>
							<ScoreDistribution value="10" recordCount="0"/>
						</Node>
						<Node score="5" recordCount="1">
							<True/>
							<ScoreDistribution value="1" recordCount="0"/>
							<ScoreDistribution value="2" recordCount="0"/>
							<ScoreDistribution value="3" recordCount="0"/>
							<ScoreDistribution value="4" recordCount="0"/>
							<ScoreDistribution value="5" recordCount="1"/>
							<ScoreDistribution value="6" recordCount="0"/>
							<ScoreDistribution value="7" recordCount="0"/>
							<ScoreDistribution value="8" recordCount="0"/>
							<ScoreDistribution value="9" recordCount="0"/>
							<ScoreDistribution value="10" recordCount="0"/>
						</Node>
					</Node>
					<Node>
						<SimplePredicate field="double(neighbour_occurrence)" operator="lessOrEqual" value="0.226190485060215"/>
						<Node score="3" recordCount="127">
							<SimplePredicate field="double(neighbour_occurrence)" operator="lessOrEqual" value="0.0625"/>
							<ScoreDistribution value="1" recordCount="0"/>
							<ScoreDistribution value="2" recordCount="0"/>
							<ScoreDistribution value="3" recordCount="127"/>
							<ScoreDistribution value="4" recordCount="0"/>
							<ScoreDistribution value="5" recordCount="0"/>
							<ScoreDistribution value="6" recordCount="0"/>
							<ScoreDistribution value="7" recordCount="0"/>
							<ScoreDistribution value="8" recordCount="0"/>
							<ScoreDistribution value="9" recordCount="0"/>
							<ScoreDistribution value="10" recordCount="0"/>
						</Node>
						<Node score="3" recordCount="4">
							<SimplePredicate field="double(total_occurrence)" operator="lessOrEqual" value="0.3571428656578064"/>
							<ScoreDistribution value="1" recordCount="0"/>
							<ScoreDistribution value="2" recordCount="0"/>
							<ScoreDistribution value="3" recordCount="4"/>
							<ScoreDistribution value="4" recordCount="0"/>
							<ScoreDistribution value="5" recordCount="0"/>
							<ScoreDistribution value="6" recordCount="0"/>
							<ScoreDistribution value="7" recordCount="0"/>
							<ScoreDistribution value="8" recordCount="0"/>
							<ScoreDistribution value="9" recordCount="0"/>
							<ScoreDistribution value="10" recordCount="0"/>
						</Node>
						<Node score="4" recordCount="2">
							<True/>
							<ScoreDistribution value="1" recordCount="0"/>
							<ScoreDistribution value="2" recordCount="0"/>
							<ScoreDistribution value="3" recordCount="0"/>
							<ScoreDistribution value="4" recordCount="2"/>
							<ScoreDistribution value="5" recordCount="0"/>
							<ScoreDistribution value="6" recordCount="0"/>
							<ScoreDistribution value="7" recordCount="0"/>
							<ScoreDistribution value="8" recordCount="0"/>
							<ScoreDistribution value="9" recordCount="0"/>
							<ScoreDistribution value="10" recordCount="0"/>
						</Node>
					</Node>
					<Node score="4" recordCount="1">
						<SimplePredicate field="double(neighbour_occurrence)" operator="lessOrEqual" value="0.3303571492433548"/>
						<ScoreDistribution value="1" recordCount="0"/>
						<ScoreDistribution value="2" recordCount="0"/>
						<ScoreDistribution value="3" recordCount="0"/>
						<ScoreDistribution value="4" recordCount="1"/>
						<ScoreDistribution value="5" recordCount="0"/>
						<ScoreDistribution value="6" recordCount="0"/>
						<ScoreDistribution value="7" recordCount="0"/>
						<ScoreDistribution value="8" recordCount="0"/>
						<ScoreDistribution value="9" recordCount="0"/>
						<ScoreDistribution value="10" recordCount="0"/>
					</Node>
					<Node score="5" recordCount="3">
						<True/>
						<ScoreDistribution value="1" recordCount="0"/>
						<ScoreDistribution value="2" recordCount="0"/>
						<ScoreDistribution value="3" recordCount="0"/>
						<ScoreDistribution value="4" recordCount="0"/>
						<ScoreDistribution value="5" recordCount="3"/>
						<ScoreDistribution value="6" recordCount="0"/>
						<ScoreDistribution value="7" recordCount="0"/>
						<ScoreDistribution value="8" recordCount="0"/>
						<ScoreDistribution value="9" recordCount="0"/>
						<ScoreDistribution value="10" recordCount="0"/>
					</Node>
				</Node>
				<Node>
					<SimplePredicate field="double(total_occurrence)" operator="lessOrEqual" value="0.5238095372915268"/>
					<Node>
						<SimplePredicate field="double(transportation_time)" operator="lessOrEqual" value="16.5"/>
						<Node>
							<SimplePredicate field="double(neighbour_occurrence)" operator="lessOrEqual" value="0.05000000074505806"/>
							<Node score="5" recordCount="3">
								<SimplePredicate field="double(transportation_time)" operator="lessOrEqual" value="6.5"/>
								<ScoreDistribution value="1" recordCount="0"/>
								<ScoreDistribution value="2" recordCount="0"/>
								<ScoreDistribution value="3" recordCount="0"/>
								<ScoreDistribution value="4" recordCount="0"/>
								<ScoreDistribution value="5" recordCount="3"/>
								<ScoreDistribution value="6" recordCount="0"/>
								<ScoreDistribution value="7" recordCount="0"/>
								<ScoreDistribution value="8" recordCount="0"/>
								<ScoreDistribution value="9" recordCount="0"/>
								<ScoreDistribution value="10" recordCount="0"/>
							</Node>
							<Node score="4" recordCount="5">
								<True/>
								<ScoreDistribution value="1" recordCount="0"/>
								<ScoreDistribution value="2" recordCount="0"/>
								<ScoreDistribution value="3" recordCount="0"/>
								<ScoreDistribution value="4" recordCount="5"/>
								<ScoreDistribution value="5" recordCount="0"/>
								<ScoreDistribution value="6" recordCount="0"/>
								<ScoreDistribution value="7" recordCount="0"/>
								<ScoreDistribution value="8" recordCount="0"/>
								<ScoreDistribution value="9" recordCount="0"/>
								<ScoreDistribution value="10" recordCount="0"/>
							</Node>
						</Node>
						<Node score="8" recordCount="1">
							<SimplePredicate field="double(transportation_time)" operator="lessOrEqual" value="4.5"/>
							<ScoreDistribution value="1" recordCount="0"/>
							<ScoreDistribution value="2" recordCount="0"/>
							<ScoreDistribution value="3" recordCount="0"/>
							<ScoreDistribution value="4" recordCount="0"/>
							<ScoreDistribution value="5" recordCount="0"/>
							<ScoreDistribution value="6" recordCount="0"/>
							<ScoreDistribution value="7" recordCount="0"/>
							<ScoreDistribution value="8" recordCount="1"/>
							<ScoreDistribution value="9" recordCount="0"/>
							<ScoreDistribution value="10" recordCount="0"/>
						</Node>
						<Node score="5" recordCount="6">
							<True/>
							<ScoreDistribution value="1" recordCount="0"/>
							<ScoreDistribution value="2" recordCount="0"/>
							<ScoreDistribution value="3" recordCount="0"/>
							<ScoreDistribution value="4" recordCount="0"/>
							<ScoreDistribution value="5" recordCount="6"/>
							<ScoreDistribution value="6" recordCount="0"/>
							<ScoreDistribution value="7" recordCount="0"/>
							<ScoreDistribution value="8" recordCount="0"/>
							<ScoreDistribution value="9" recordCount="0"/>
							<ScoreDistribution value="10" recordCount="0"/>
						</Node>
					</Node>
					<Node score="4" recordCount="47">
						<True/>
						<ScoreDistribution value="1" recordCount="0"/>
						<ScoreDistribution value="2" recordCount="0"/>
						<ScoreDistribution value="3" recordCount="0"/>
						<ScoreDistribution value="4" recordCount="47"/>
						<ScoreDistribution value="5" recordCount="0"/>
						<ScoreDistribution value="6" recordCount="0"/>
						<ScoreDistribution value="7" recordCount="0"/>
						<ScoreDistribution value="8" recordCount="0"/>
						<ScoreDistribution value="9" recordCount="0"/>
						<ScoreDistribution value="10" recordCount="0"/>
					</Node>
				</Node>
				<Node>
					<SimplePredicate field="double(neighbour_occurrence)" operator="lessOrEqual" value="0.0357142873108387"/>
					<Node>
						<SimplePredicate field="double(transportation_time)" operator="lessOrEqual" value="14.5"/>
						<Node score="5" recordCount="2">
							<SimplePredicate field="double(total_occurrence)" operator="lessOrEqual" value="0.6190476417541504"/>
							<ScoreDistribution value="1" recordCount="0"/>
							<ScoreDistribution value="2" recordCount="0"/>
							<ScoreDistribution value="3" recordCount="0"/>
							<ScoreDistribution value="4" recordCount="0"/>
							<ScoreDistribution value="5" recordCount="2"/>
							<ScoreDistribution value="6" recordCount="0"/>
							<ScoreDistribution value="7" recordCount="0"/>
							<ScoreDistribution value="8" recordCount="0"/>
							<ScoreDistribution value="9" recordCount="0"/>
							<ScoreDistribution value="10" recordCount="0"/>
						</Node>
						<Node score="6" recordCount="1">
							<True/>
							<ScoreDistribution value="1" recordCount="0"/>
							<ScoreDistribution value="2" recordCount="0"/>
							<ScoreDistribution value="3" recordCount="0"/>
							<ScoreDistribution value="4" recordCount="0"/>
							<ScoreDistribution value="5" recordCount="0"/>
							<ScoreDistribution value="6" recordCount="1"/>
							<ScoreDistribution value="7" recordCount="0"/>
							<ScoreDistribution value="8" recordCount="0"/>
							<ScoreDistribution value="9" recordCount="0"/>
							<ScoreDistribution value="10" recordCount="0"/>
						</Node>
					</Node>
					<Node score="5" recordCount="39">
						<True/>
						<ScoreDistribution value="1" recordCount="0"/>
						<ScoreDistribution value="2" recordCount="0"/>
						<ScoreDistribution value="3" recordCount="0"/>
						<ScoreDistribution value="4" recordCount="0"/>
						<ScoreDistribution value="5" recordCount="39"/>
						<ScoreDistribution value="6" recordCount="0"/>
						<ScoreDistribution value="7" recordCount="0"/>
						<ScoreDistribution value="8" recordCount="0"/>
						<ScoreDistribution value="9" recordCount="0"/>
						<ScoreDistribution value="10" recordCount="0"/>
					</Node>
				</Node>
				<Node>
					<SimplePredicate field="double(total_occurrence)" operator="lessOrEqual" value="0.6190476417541504"/>
					<Node>
						<SimplePredicate field="double(transportation_time)" operator="lessOrEqual" value="9.0"/>
						<Node score="6" recordCount="1">
							<SimplePredicate field="double(neighbour_occurrence)" operator="lessOrEqual" value="0.6250000149011612"/>
							<ScoreDistribution value="1" recordCount="0"/>
							<ScoreDistribution value="2" recordCount="0"/>
							<ScoreDistribution value="3" recordCount="0"/>
							<ScoreDistribution value="4" recordCount="0"/>
							<ScoreDistribution value="5" recordCount="0"/>
							<ScoreDistribution value="6" recordCount="1"/>
							<ScoreDistribution value="7" recordCount="0"/>
							<ScoreDistribution value="8" recordCount="0"/>
							<ScoreDistribution value="9" recordCount="0"/>
							<ScoreDistribution value="10" recordCount="0"/>
						</Node>
						<Node score="8" recordCount="1">
							<True/>
							<ScoreDistribution value="1" recordCount="0"/>
							<ScoreDistribution value="2" recordCount="0"/>
							<ScoreDistribution value="3" recordCount="0"/>
							<ScoreDistribution value="4" recordCount="0"/>
							<ScoreDistribution value="5" recordCount="0"/>
							<ScoreDistribution value="6" recordCount="0"/>
							<ScoreDistribution value="7" recordCount="0"/>
							<ScoreDistribution value="8" recordCount="1"/>
							<ScoreDistribution value="9" recordCount="0"/>
							<ScoreDistribution value="10" recordCount="0"/>
						</Node>
					</Node>
					<Node score="5" recordCount="6">
						<True/>
						<ScoreDistribution value="1" recordCount="0"/>
						<ScoreDistribution value="2" recordCount="0"/>
						<ScoreDistribution value="3" recordCount="0"/>
						<ScoreDistribution value="4" recordCount="0"/>
						<ScoreDistribution value="5" recordCount="6"/>
						<ScoreDistribution value="6" recordCount="0"/>
						<ScoreDistribution value="7" recordCount="0"/>
						<ScoreDistribution value="8" recordCount="0"/>
						<ScoreDistribution value="9" recordCount="0"/>
						<ScoreDistribution value="10" recordCount="0"/>
					</Node>
				</Node>
				<Node score="6" recordCount="9">
					<True/>
					<ScoreDistribution value="1" recordCount="0"/>
					<ScoreDistribution value="2" recordCount="0"/>
					<ScoreDistribution value="3" recordCount="0"/>
					<ScoreDistribution value="4" recordCount="0"/>
					<ScoreDistribution value="5" recordCount="0"/>
					<ScoreDistribution value="6" recordCount="9"/>
					<ScoreDistribution value="7" recordCount="0"/>
					<ScoreDistribution value="8" recordCount="0"/>
					<ScoreDistribution value="9" recordCount="0"/>
					<ScoreDistribution value="10" recordCount="0"/>
				</Node>
			</Node>
			<Node>
				<SimplePredicate field="double(neighbour_occurrence)" operator="lessOrEqual" value="0.37280701845884323"/>
				<Node>
					<SimplePredicate field="double(transportation_time)" operator="lessOrEqual" value="5.0"/>
					<Node score="7" recordCount="1">
						<SimplePredicate field="double(neighbour_occurrence)" operator="lessOrEqual" value="0.02777777798473835"/>
						<ScoreDistribution value="1" recordCount="0"/>
						<ScoreDistribution value="2" recordCount="0"/>
						<ScoreDistribution value="3" recordCount="0"/>
						<ScoreDistribution value="4" recordCount="0"/>
						<ScoreDistribution value="5" recordCount="0"/>
						<ScoreDistribution value="6" recordCount="0"/>
						<ScoreDistribution value="7" recordCount="1"/>
						<ScoreDistribution value="8" recordCount="0"/>
						<ScoreDistribution value="9" recordCount="0"/>
						<ScoreDistribution value="10" recordCount="0"/>
					</Node>
					<Node score="8" recordCount="2">
						<True/>
						<ScoreDistribution value="1" recordCount="0"/>
						<ScoreDistribution value="2" recordCount="0"/>
						<ScoreDistribution value="3" recordCount="0"/>
						<ScoreDistribution value="4" recordCount="0"/>
						<ScoreDistribution value="5" recordCount="0"/>
						<ScoreDistribution value="6" recordCount="0"/>
						<ScoreDistribution value="7" recordCount="0"/>
						<ScoreDistribution value="8" recordCount="2"/>
						<ScoreDistribution value="9" recordCount="0"/>
						<ScoreDistribution value="10" recordCount="0"/>
					</Node>
				</Node>
				<Node score="7" recordCount="103">
					<SimplePredicate field="double(neighbour_occurrence)" operator="lessOrEqual" value="0.13450292125344276"/>
					<ScoreDistribution value="1" recordCount="0"/>
					<ScoreDistribution value="2" recordCount="0"/>
					<ScoreDistribution value="3" recordCount="0"/>
					<ScoreDistribution value="4" recordCount="0"/>
					<ScoreDistribution value="5" recordCount="0"/>
					<ScoreDistribution value="6" recordCount="0"/>
					<ScoreDistribution value="7" recordCount="103"/>
					<ScoreDistribution value="8" recordCount="0"/>
					<ScoreDistribution value="9" recordCount="0"/>
					<ScoreDistribution value="10" recordCount="0"/>
				</Node>
				<Node score="7" recordCount="2">
					<SimplePredicate field="double(total_occurrence)" operator="lessOrEqual" value="0.880952388048172"/>
					<ScoreDistribution value="1" recordCount="0"/>
					<ScoreDistribution value="2" recordCount="0"/>
					<ScoreDistribution value="3" recordCount="0"/>
					<ScoreDistribution value="4" recordCount="0"/>
					<ScoreDistribution value="5" recordCount="0"/>
					<ScoreDistribution value="6" recordCount="0"/>
					<ScoreDistribution value="7" recordCount="2"/>
					<ScoreDistribution value="8" recordCount="0"/>
					<ScoreDistribution value="9" recordCount="0"/>
					<ScoreDistribution value="10" recordCount="0"/>
				</Node>
				<Node score="8" recordCount="2">
					<True/>
					<ScoreDistribution value="1" recordCount="0"/>
					<ScoreDistribution value="2" recordCount="0"/>
					<ScoreDistribution value="3" recordCount="0"/>
					<ScoreDistribution value="4" recordCount="0"/>
					<ScoreDistribution value="5" recordCount="0"/>
					<ScoreDistribution value="6" recordCount="0"/>
					<ScoreDistribution value="7" recordCount="0"/>
					<ScoreDistribution value="8" recordCount="2"/>
					<ScoreDistribution value="9" recordCount="0"/>
					<ScoreDistribution value="10" recordCount="0"/>
				</Node>
			</Node>
			<Node score="9" recordCount="3">
				<SimplePredicate field="double(neighbour_occurrence)" operator="lessOrEqual" value="0.6666666567325592"/>
				<ScoreDistribution value="1" recordCount="0"/>
				<ScoreDistribution value="2" recordCount="0"/>
				<ScoreDistribution value="3" recordCount="0"/>
				<ScoreDistribution value="4" recordCount="0"/>
				<ScoreDistribution value="5" recordCount="0"/>
				<ScoreDistribution value="6" recordCount="0"/>
				<ScoreDistribution value="7" recordCount="0"/>
				<ScoreDistribution value="8" recordCount="0"/>
				<ScoreDistribution value="9" recordCount="3"/>
				<ScoreDistribution value="10" recordCount="0"/>
			</Node>
			<Node score="10" recordCount="2">
				<True/>
				<ScoreDistribution value="1" recordCount="0"/>
				<ScoreDistribution value="2" recordCount="0"/>
				<ScoreDistribution value="3" recordCount="0"/>
				<ScoreDistribution value="4" recordCount="0"/>
				<ScoreDistribution value="5" recordCount="0"/>
				<ScoreDistribution value="6" recordCount="0"/>
				<ScoreDistribution value="7" recordCount="0"/>
				<ScoreDistribution value="8" recordCount="0"/>
				<ScoreDistribution value="9" recordCount="0"/>
				<ScoreDistribution value="10" recordCount="2"/>
			</Node>
		</Node>
	</TreeModel>
</PMML>
